{
  "meta": {
    "name": "艾德尔修仙传 AI 模型 - Bot 0",
    "version": "2.0",
    "exportTime": "2026-05-23T08:57:52.046Z",
    "framework": "DQN",
    "stateDim": 50,
    "actionDim": 35,
    "layerSizes": [
      50,
      170,
      85,
      35
    ]
  },
  "network": {
    "weights": [
      [
        [
          0.03590233,
          0.09420603,
          -0.00310792,
          -0.07710213,
          0.0601922,
          -0.03643808,
          0.05836906,
          -0.07566086,
          0.0513379,
          0.08361525,
          0.09333883,
          -0.07198811,
          0.05914948,
          -0.06742935,
          0.0061554,
          0.04827859,
          -0.08928247,
          0.05921232,
          0.0462912,
          0.06739275,
          0.06703061,
          -0.06595823,
          -0.06351413,
          -0.04425801,
          -0.0119031,
          0.06720127,
          0.09336656,
          0.0690039,
          0.03988515,
          -0.09581645,
          -0.00825174,
          -0.06723575,
          0.01582211,
          -0.03489813,
          0.08772144,
          0.02616342,
          0.09170424,
          0.06532336,
          -0.08153868,
          0.04174275,
          -0.00063719,
          0.03105416,
          -0.06804895,
          -0.0297461,
          -0.03113074,
          -0.06514462,
          0.04138441,
          0.0697646,
          -0.05742285,
          -0.08045501,
          0.00173913,
          0.02613392,
          0.09400341,
          -0.05719276,
          -0.07171031,
          -0.02359025,
          0.07993766,
          0.02759375,
          0.06548242,
          0.068917,
          -0.04334697,
          -0.07319165,
          0.03360721,
          0.0301889,
          0.06737916,
          0.01080882,
          -0.07643966,
          0.03584995,
          0.0135937,
          -0.01728276,
          -0.09794521,
          0.00508043,
          -0.08636418,
          0.00578403,
          -0.04948154,
          -0.04949223,
          -0.07700501,
          0.0215271,
          -0.03561248,
          0.08019588,
          0.09267829,
          0.04825614,
          -0.08455443,
          0.06533442,
          -0.0249084,
          -0.04066125,
          0.06018174,
          -0.05131519,
          -0.0619676,
          -0.10168443,
          0.06938389,
          0.0044676,
          0.07931857,
          -0.0287254,
          0.09376713,
          -0.01109871,
          -0.07261189,
          0.0028325,
          0.03948805,
          -0.04880423,
          0.08377499,
          0.0023128,
          0.0847847,
          0.07830529,
          -0.08094152,
          -0.03737213,
          0.00103751,
          -0.02332335,
          -0.03771817,
          0.02237619,
          0.03317813,
          -0.03999474,
          0.0757946,
          -0.10292151,
          -0.07199753,
          -0.0394455,
          0.00401755,
          0.00362662,
          0.05461239,
          -0.02058315,
          0.08847239,
          -0.01184059,
          0.01475391,
          -0.06310749,
          -0.03676528,
          0.05840723,
          0.02404127,
          -0.04523643,
          0.03021854,
          -0.05227174,
          0.05722093,
          0.0824057,
          0.04829815,
          0.00797723,
          0.04746537,
          0.03889641,
          -0.05857706,
          -0.07570357,
          0.0130799,
          -0.09781037,
          0.01718797,
          -0.06478906,
          -0.03573875,
          -0.03173872,
          -0.0185241,
          -0.02443626,
          0.06102178,
          0.03971621,
          0.06074937,
          0.06837979,
          0.07977748,
          -0.00576507,
          -0.0723395,
          0.05084678,
          -0.03523703,
          -0.04544401,
          0.08595263,
          -0.01419115,
          -0.01304319,
          0.07604052,
          -0.09333971,
          0.02411631,
          0.01371498,
          0.03456373,
          -0.07771328,
          -0.03480455,
          -0.011129,
          -0.06557133,
          0.07528396,
          0.09170039
        ],
        [
          0.05278079,
          -0.02043385,
          -0.01482723,
          -0.07005335,
          -0.00970782,
          0.0137134,
          -0.29003504,
          0.0533699,
          -0.08754441,
          -0.01599131,
          0.02143777,
          -0.14905994,
          -0.34598878,
          -0.33482845,
          -0.06732419,
          -0.30006634,
          -0.05310678,
          -0.70771021,
          -0.02361436,
          0.07832428,
          -0.08698083,
          -0.09304982,
          0.07717221,
          -1.76472889,
          -0.25683667,
          -0.8825839,
          -0.05434955,
          0.06792953,
          -0.10934696,
          -0.46453251,
          -0.35547739,
          -0.24148077,
          -0.12789969,
          -0.00340206,
          -0.05089062,
          0.00050308,
          0.06576854,
          0.06955132,
          -0.29728024,
          -3.54271792,
          -3.10875462,
          -0.06852838,
          -0.38493719,
          -0.098443,
          -0.09372171,
          -0.55540932,
          0.00640826,
          -0.09158749,
          -0.09523433,
          -0.1485834,
          -0.18759336,
          -0.08126697,
          1.07681703,
          -0.04076613,
          -0.01588041,
          -0.27399345,
          -0.05771992,
          -1.2359234,
          0.01909034,
          0.07784953,
          -0.29547086,
          -0.14751181,
          -0.47508841,
          0.07005428,
          -0.09427553,
          0.0876127,
          -0.07470736,
          -0.07828812,
          -0.09112621,
          -0.14044898,
          -0.23926352,
          -0.95185841,
          -0.04505543,
          -0.0145486,
          -0.01865432,
          -0.20524556,
          -0.62943319,
          -0.13642297,
          -0.08525786,
          0.02700086,
          -0.0271777,
          -0.32484791,
          -0.05490046,
          -0.2090941,
          -0.08371049,
          0.05189978,
          -0.00937491,
          -1.49668962,
          -0.09531861,
          -0.16540883,
          -0.07765298,
          -0.1532171,
          -0.10657372,
          -0.13844916,
          -0.52612684,
          -0.51109339,
          0.0022301,
          -0.17513688,
          -0.92287771,
          -0.49451197,
          -0.57716006,
          -0.79595799,
          -0.06596492,
          -0.19984982,
          -0.25552952,
          -0.19429652,
          -0.10905856,
          -2.24636085,
          -0.28026364,
          -0.04057625,
          -0.21747508,
          -0.25598792,
          -0.16465296,
          -0.36843454,
          0.02318386,
          -0.01512067,
          -0.09415805,
          1.29829042,
          -0.64365005,
          -0.04236051,
          0.06168509,
          -0.22090074,
          -0.07861461,
          -0.0402046,
          -0.07893788,
          -0.03709967,
          0.08407686,
          -0.19034672,
          -0.3335398,
          -0.06826828,
          -0.23816812,
          -0.25149711,
          0.00342429,
          0.08183862,
          -0.11270302,
          -0.55458897,
          -0.01678628,
          0.0189278,
          -0.55770275,
          -0.11517916,
          -0.07717742,
          0.05421567,
          -0.05240907,
          -0.04611616,
          0.02477869,
          -0.22392415,
          -0.08278662,
          -2.41622968,
          -0.03112678,
          -0.26200978,
          -0.29781196,
          0.05756405,
          -0.0783468,
          -0.58697546,
          -0.27375449,
          -0.51988344,
          0.02262608,
          -0.05346141,
          -0.00676387,
          -0.05963571,
          -0.87117831,
          -0.07597749,
          -0.0780926,
          -0.15092616,
          -0.52303027,
          -0.54383596,
          -0.13942849,
          -0.14017691,
          -0.07800506,
          0.00853831
        ],
        [
          0.12597995,
          -0.07084034,
          -0.08617808,
          -0.08322104,
          -0.0588652,
          -0.07288724,
          -0.17287667,
          -0.03734434,
          -0.15249304,
          -0.08277904,
          -0.09457271,
          -0.16959124,
          -0.487383,
          -0.64414276,
          -0.07048085,
          -0.12375514,
          -0.25000625,
          -0.41936696,
          -0.1352436,
          -0.07156274,
          0.07154366,
          -0.0178098,
          0.04790017,
          -1.16283062,
          -0.29076909,
          -0.43447691,
          0.13386308,
          -0.01358875,
          -0.28454737,
          -0.77161526,
          -0.35420126,
          -0.4497468,
          -0.33771681,
          0.06071938,
          0.00962865,
          -0.02170809,
          0.05633879,
          -0.0654043,
          -0.52971264,
          -1.83637288,
          -1.62905162,
          0.07113459,
          -0.18329231,
          -0.26364567,
          0.30737991,
          -0.99529765,
          -0.02479404,
          -0.05199863,
          -0.05987623,
          0.03548782,
          -0.19536224,
          -0.08449541,
          0.60805696,
          -0.01051229,
          -0.0144564,
          -0.48278645,
          0.146073,
          -0.73837448,
          -0.02098505,
          -0.02478977,
          -0.08261737,
          -0.09137889,
          -0.55690962,
          -0.08115095,
          0.08547737,
          -0.04870477,
          -0.2342775,
          0.01109207,
          0.00829437,
          -0.01754869,
          -0.51600736,
          -0.52481004,
          0.02700096,
          -0.04274364,
          0.00225608,
          -0.18202495,
          -0.90188894,
          -0.2851831,
          0.07547242,
          -0.02144853,
          0.04308552,
          -0.43229191,
          0.08068056,
          -0.32838716,
          -0.03659491,
          0.31040515,
          -0.07794943,
          -0.7713098,
          0.01457448,
          0.23372882,
          0.2178647,
          0.17347245,
          -0.26439083,
          0.33345298,
          -0.7258348,
          -0.96641586,
          0.02987515,
          0.23383983,
          -0.6632822,
          -0.84502759,
          -0.42568165,
          -0.48043952,
          -0.02457887,
          0.40496262,
          -0.44927042,
          0.21768535,
          -0.23321339,
          -1.10166551,
          -0.45869686,
          -0.0398467,
          -0.31024599,
          -0.34934983,
          -0.25909941,
          -0.70856584,
          0.00565962,
          -0.09489236,
          -0.00122295,
          0.62839061,
          -1.0306395,
          -0.03597329,
          0.19687001,
          -0.31242976,
          0.01034553,
          0.00753202,
          -0.07180125,
          0.0029415,
          -0.01425471,
          -0.47399667,
          -0.50261947,
          0.06766323,
          -0.35646945,
          -0.26060779,
          0.00920752,
          -0.08400957,
          0.16005774,
          -0.43887107,
          0.11643176,
          -0.06749353,
          -0.7945168,
          -0.15329185,
          0.05441176,
          0.0016213,
          0.0729267,
          0.07686404,
          0.06497742,
          -0.23923616,
          -0.16191914,
          -1.09710367,
          -0.04222837,
          -0.21916491,
          -0.50892199,
          -0.01636774,
          0.08730311,
          -1.10228885,
          -0.48598384,
          -0.92901539,
          0.02352696,
          -0.07775408,
          0.00323488,
          0.00994294,
          -1.25452494,
          -0.07039602,
          0.08755071,
          -0.28613163,
          -0.91770206,
          -0.23496935,
          0.28580343,
          -0.30377504,
          0.02363437,
          -0.07605588
        ],
        [
          -0.03354206,
          -0.06367916,
          0.02764486,
          -0.03387985,
          0.05069401,
          -0.01561365,
          -0.37894063,
          0.06737494,
          -0.14685028,
          -0.09430416,
          -0.04307395,
          -0.35315687,
          -0.67677404,
          -0.86778646,
          0.06350675,
          -0.39067357,
          -0.31609284,
          -0.6278572,
          -0.06344035,
          -0.07279503,
          -0.03028492,
          -0.02795839,
          -0.07104158,
          -1.79025875,
          -0.28783806,
          -0.75090028,
          0.01598753,
          -0.06481447,
          -0.06910427,
          -0.96370577,
          -0.32027781,
          -0.59573089,
          -0.2593062,
          -0.04610037,
          -0.05883948,
          -0.01304269,
          -0.10573944,
          -0.04275365,
          -0.83127498,
          -3.31752152,
          -2.89505768,
          -0.06011341,
          -0.2953432,
          -0.28141791,
          -0.47282037,
          -1.19298112,
          -0.07166016,
          -0.15034939,
          -0.09336304,
          0.01422308,
          -0.19715789,
          0.05751414,
          1.23335495,
          -0.01311536,
          0.0320381,
          -0.63455197,
          -0.14756289,
          -1.1234852,
          0.05840278,
          -0.09212788,
          -0.40704418,
          -0.09350147,
          -0.39452616,
          -0.04796153,
          -0.0378781,
          -0.06887774,
          -0.29636533,
          -0.04779182,
          -0.06377416,
          -0.14718507,
          -0.68781417,
          -1.01208137,
          -0.02845523,
          -0.08060875,
          0.06386362,
          -0.26475395,
          -1.18365206,
          -0.07016419,
          -0.08011931,
          -0.0203791,
          -0.01352817,
          -0.566976,
          -0.02359158,
          -0.20336207,
          0.03464355,
          -0.06879914,
          -0.0327447,
          -1.34196476,
          -0.08035787,
          -0.39888048,
          -0.36158878,
          -0.3932313,
          -0.37670641,
          -0.36155975,
          -0.51224858,
          -1.2683701,
          -0.0014653,
          -0.29459471,
          -0.89885264,
          -1.16109731,
          -0.53081206,
          -0.86297626,
          -0.06300329,
          -0.33378925,
          -0.34157297,
          -0.13723212,
          -0.27438406,
          -2.16358887,
          -0.73386853,
          -0.04861076,
          -0.26871078,
          -0.47974642,
          -0.34911623,
          -0.8512942,
          -0.04193647,
          -0.08366031,
          -0.08295552,
          1.17725304,
          -1.25985979,
          -0.05062408,
          0.18723488,
          -0.34676496,
          -0.02115558,
          -0.03237224,
          0.0125238,
          0.05695858,
          -0.0398553,
          -0.60067799,
          -0.61248639,
          -0.16117706,
          -0.59010658,
          -0.29702795,
          0.01431168,
          -0.01398884,
          -0.15751466,
          -0.66463029,
          0.10566992,
          0.02177282,
          -1.07577132,
          -0.20767622,
          -0.07291642,
          0.02364304,
          0.0320798,
          -0.08372238,
          -0.05738974,
          -0.13614147,
          -0.25328042,
          -2.17588607,
          -0.03409118,
          -0.39239524,
          -0.7328879,
          0.03363263,
          -0.06356187,
          -1.36359531,
          -0.53423051,
          -1.06825132,
          0.00685843,
          -0.07996379,
          -0.05118846,
          0.00374887,
          -0.90490241,
          -0.07676397,
          -0.03050818,
          -0.38484548,
          -1.26852842,
          -0.47733896,
          -0.24438365,
          -0.39980466,
          0.0373925,
          -0.0152044
        ],
        [
          0.04836107,
          0.08011799,
          -0.02517947,
          0.04375253,
          -0.03368335,
          -0.07011919,
          -0.07321735,
          0.05778362,
          0.08576261,
          0.03800911,
          0.00473736,
          -0.01182988,
          -0.01622842,
          0.00836248,
          -0.00941801,
          -0.04704966,
          -0.0541933,
          -0.02432454,
          0.02800592,
          0.00456984,
          0.03820882,
          -0.06008543,
          0.07234848,
          -0.05386434,
          -0.07329102,
          0.05885383,
          -0.00349367,
          -0.06766071,
          0.07848425,
          -0.06244729,
          0.05526646,
          0.012622,
          0.0205347,
          0.04367883,
          -0.06669918,
          -0.08535096,
          0.00175989,
          0.05134495,
          -0.00135989,
          0.0096665,
          0.00740942,
          -0.08280538,
          -0.01380017,
          -0.06647186,
          -0.03302376,
          -0.06210709,
          -0.06119669,
          0.02245241,
          0.04834802,
          -0.08757787,
          0.04242292,
          -0.01191665,
          -0.00695919,
          -0.0503955,
          0.01789813,
          0.03544733,
          -0.02084848,
          -0.05376956,
          -0.01600219,
          -0.07826248,
          0.08919716,
          0.0228902,
          0.03928842,
          -0.08658607,
          0.00348456,
          -0.0862264,
          -0.08405595,
          0.01796639,
          -0.07526113,
          -0.0115292,
          0.01949469,
          -0.07247584,
          0.01815294,
          0.03518738,
          -0.06654159,
          0.02091445,
          0.0241946,
          0.07422232,
          0.07231034,
          -0.04420036,
          -0.02171235,
          0.00362768,
          0.04662988,
          -0.01229766,
          -0.01967031,
          -0.08646895,
          -0.08499286,
          -0.05979196,
          0.07190561,
          0.01088069,
          -0.03708016,
          -0.03896819,
          0.06535521,
          0.04103226,
          -0.02328905,
          0.08021345,
          -0.0607704,
          0.01015054,
          -0.05656422,
          -0.09008507,
          -0.04991751,
          -0.0207225,
          0.00895837,
          -0.08456932,
          0.02746742,
          0.09526673,
          0.00438404,
          0.09444352,
          0.04343863,
          -0.09388991,
          0.06701714,
          -0.06078182,
          -0.01941601,
          -0.07949492,
          -0.01612468,
          0.02955385,
          -0.09253418,
          -0.0094123,
          -0.00053555,
          0.08894958,
          0.04316453,
          -0.05436513,
          0.01819179,
          0.06446703,
          -0.02853904,
          -0.07032553,
          0.00595496,
          -0.06249706,
          0.09449978,
          -0.08028502,
          0.04883242,
          -0.03587824,
          0.04987667,
          0.05564276,
          0.01331297,
          0.06159003,
          -0.02895208,
          0.00810641,
          0.00025751,
          0.04951924,
          0.06356862,
          0.06568354,
          -0.00619814,
          -0.01168336,
          -0.0607551,
          0.04128007,
          0.04350153,
          0.04133404,
          -0.07727729,
          -0.047536,
          0.02573436,
          -0.04562895,
          0.08686026,
          0.0006927,
          -0.03253781,
          -0.03119075,
          -0.09029318,
          0.08020419,
          0.06710505,
          -0.00144911,
          -0.00448923,
          -0.00855104,
          0.01313691,
          0.05344449,
          -0.0674633,
          -0.09370785,
          0.00231888,
          0.07131178,
          0.00755172,
          0.06226188
        ],
        [
          0.021578,
          0.00696674,
          0.01168392,
          -0.06968413,
          -0.03628747,
          -0.01196316,
          0.07211921,
          -0.00829293,
          -0.09412736,
          -0.00529795,
          -0.04550471,
          0.0674729,
          -0.07801362,
          0.05069994,
          0.02331918,
          -0.01446469,
          -0.02607404,
          -0.05044511,
          -0.03849779,
          -0.08098811,
          -0.037858,
          0.07615354,
          0.03187606,
          0.00724076,
          -0.06902425,
          0.00522578,
          -0.07002327,
          0.07419336,
          -0.07717216,
          -0.02794809,
          0.00389209,
          0.01563579,
          -0.07110131,
          -0.07712756,
          0.07579169,
          -0.00157507,
          -0.03832324,
          -0.08435136,
          -0.04040241,
          -0.01055468,
          -0.00414753,
          -0.05488168,
          -0.00231696,
          0.02830814,
          0.0096908,
          -0.04942599,
          -0.08512256,
          -0.08356174,
          0.09433362,
          -0.05256105,
          -0.0898569,
          0.07181422,
          0.03665589,
          -0.0237803,
          0.00702402,
          -0.07103657,
          -0.02910833,
          0.05728344,
          0.09329289,
          0.07587807,
          -0.04910838,
          0.03744454,
          0.02175838,
          -0.03036644,
          0.01011059,
          0.08153945,
          -0.00269237,
          0.07232588,
          0.08892043,
          -0.02964931,
          0.03479774,
          0.04031997,
          -0.08721354,
          -0.04988081,
          0.00732533,
          0.03793985,
          0.00190095,
          0.01871582,
          0.03563509,
          0.05969846,
          -0.00817009,
          -0.06121091,
          -0.08036445,
          0.00480465,
          0.02170173,
          0.01418902,
          -0.04410599,
          -0.04011642,
          -0.04464868,
          -0.03671039,
          -0.04473446,
          0.02868302,
          0.03354975,
          -0.04221796,
          0.00966989,
          -0.04081758,
          0.00399758,
          -0.06634817,
          0.03203857,
          -0.09281463,
          -0.03670343,
          0.09112136,
          -0.03960575,
          -0.04127184,
          -0.06688846,
          0.03634504,
          -0.07995501,
          -0.07403047,
          -0.07972582,
          -0.05844513,
          0.06142406,
          -0.01098496,
          -0.06529542,
          0.00215776,
          0.06961904,
          0.03730358,
          -0.06984893,
          -0.0035223,
          0.00001727,
          0.07278383,
          0.01702398,
          -0.01656573,
          -0.00619851,
          0.08549421,
          -0.04005028,
          0.00232664,
          -0.00775905,
          0.00432507,
          0.08334174,
          -0.04359517,
          -0.01789449,
          -0.07444095,
          -0.03411789,
          -0.05264919,
          -0.06097234,
          0.01928621,
          0.07587972,
          -0.02569147,
          0.08977419,
          0.08070323,
          -0.01526213,
          0.05336309,
          -0.09316764,
          0.07773155,
          0.01859415,
          0.03269735,
          0.00313901,
          0.05319049,
          0.07546288,
          0.06939344,
          0.00590136,
          0.04539516,
          0.09226914,
          0.09028177,
          -0.01950382,
          0.09234185,
          -0.00176126,
          0.02163153,
          -0.09171334,
          -0.06235974,
          -0.03934969,
          -0.05914782,
          0.0925867,
          -0.05209082,
          -0.08057784,
          -0.09222667,
          -0.00187593,
          0.0271807,
          0.07418104,
          0.01453497
        ],
        [
          -0.0157275,
          0.01482584,
          -0.00911697,
          0.05394559,
          -0.02443552,
          0.03074721,
          -0.04011189,
          0.08357067,
          -0.0943534,
          0.0743641,
          0.0546222,
          -0.08635016,
          -0.06148625,
          -0.0859447,
          -0.00583939,
          -0.07482882,
          -0.05347691,
          0.05382777,
          0.02046023,
          0.01857792,
          0.03035971,
          0.09364751,
          -0.05258434,
          -0.00226408,
          0.08732156,
          -0.05024593,
          0.09224126,
          -0.08023713,
          -0.06960864,
          0.07741107,
          0.07891466,
          -0.01641136,
          0.0278529,
          -0.03978632,
          -0.00233852,
          -0.07254492,
          0.02828871,
          0.05680467,
          0.00860785,
          0.06688303,
          0.00302369,
          -0.02722027,
          0.03810854,
          -0.09237375,
          -0.03158968,
          -0.05064863,
          0.04387676,
          -0.03387028,
          0.00460485,
          -0.01503213,
          -0.05741597,
          0.00739357,
          0.02678194,
          0.02244327,
          0.00019454,
          0.07666447,
          0.04491524,
          -0.0086342,
          -0.03696629,
          -0.06167494,
          0.03612179,
          -0.08436452,
          -0.06331189,
          -0.03836219,
          -0.0501861,
          0.00928854,
          -0.08158826,
          0.02371259,
          -0.02583614,
          -0.03077399,
          0.01726366,
          0.07809104,
          -0.01182531,
          0.05819563,
          -0.04505623,
          -0.00355629,
          0.07456874,
          0.02332828,
          0.09221748,
          0.02015193,
          -0.05770258,
          -0.08712992,
          -0.09142284,
          0.02053268,
          -0.03813406,
          0.0770116,
          -0.04606348,
          -0.07497354,
          -0.08892994,
          0.03424553,
          -0.056094,
          -0.06919315,
          0.05084162,
          0.07907467,
          0.02165573,
          0.00863612,
          0.00108096,
          0.01524414,
          0.08249324,
          -0.02701275,
          0.03589409,
          -0.07272749,
          0.05163911,
          0.06666799,
          -0.0591137,
          -0.01287813,
          -0.07040858,
          -0.03338673,
          0.06111755,
          0.01021947,
          0.06455034,
          -0.04890293,
          0.03630794,
          -0.01889302,
          -0.07191385,
          0.01575009,
          0.01188341,
          -0.06001748,
          0.0336387,
          -0.00579523,
          0.06754603,
          -0.06474246,
          -0.04828608,
          0.06879654,
          -0.00445857,
          0.08427363,
          -0.04547851,
          0.01582774,
          0.0099547,
          -0.02451403,
          0.05149552,
          -0.06106805,
          0.09442536,
          -0.08119297,
          -0.04750318,
          -0.05329186,
          -0.00641927,
          0.05120763,
          0.03680046,
          -0.0158793,
          0.05558046,
          -0.01058454,
          -0.06551462,
          0.01731644,
          -0.0631621,
          0.0368041,
          -0.0630869,
          -0.03597168,
          0.0820826,
          0.07470904,
          -0.04769041,
          0.01186327,
          0.00940241,
          0.05904136,
          -0.03001164,
          0.08588863,
          -0.02626474,
          -0.08794894,
          0.07703376,
          -0.05739556,
          0.08135911,
          0.0462913,
          0.07222646,
          0.0156105,
          -0.01978549,
          0.00974112,
          -0.06667641,
          0.05845715,
          0.08945548,
          -0.03834946
        ],
        [
          0.08953501,
          0.06903051,
          0.08670946,
          0.00375321,
          0.06766529,
          0.06864998,
          -0.02115774,
          -0.08097962,
          -0.07905159,
          -0.0788538,
          0.04249622,
          -0.08095247,
          0.07383027,
          0.00042536,
          0.08677279,
          -0.04471036,
          -0.03473861,
          -0.01901869,
          0.06096951,
          0.02899473,
          0.00705999,
          -0.01502315,
          -0.03918907,
          0.072686,
          0.08453196,
          0.07704306,
          0.00203048,
          0.06838537,
          -0.09210983,
          0.09421721,
          0.01729506,
          0.08105243,
          -0.00665216,
          0.0332528,
          0.05732066,
          -0.06037378,
          -0.02296583,
          -0.05414937,
          0.0281258,
          -0.0656945,
          0.02020883,
          -0.09435339,
          0.08113623,
          0.04792385,
          0.07977572,
          0.07545091,
          -0.03042957,
          -0.00659647,
          -0.01032376,
          -0.05448169,
          -0.03291275,
          0.06794177,
          -0.08224266,
          0.06096697,
          -0.07897054,
          0.02227346,
          0.0373247,
          -0.07074436,
          0.02955835,
          -0.04199294,
          -0.05817772,
          0.05537618,
          -0.05068787,
          -0.0166433,
          -0.05210326,
          0.01962385,
          0.02811779,
          0.05064267,
          -0.02628694,
          -0.05026213,
          0.05748581,
          -0.05873019,
          -0.04575782,
          -0.05145342,
          -0.03456633,
          -0.04228923,
          0.03415423,
          0.09369541,
          0.02480262,
          -0.01527683,
          0.07581399,
          -0.01791217,
          -0.02052029,
          0.00188273,
          -0.00565936,
          0.08863244,
          0.00156358,
          -0.04111013,
          -0.08978985,
          0.01507882,
          -0.04932332,
          0.0301722,
          -0.00249148,
          -0.0365659,
          0.03603406,
          0.09165734,
          -0.01442953,
          0.03625794,
          0.02955941,
          -0.0928765,
          0.03223126,
          0.03540827,
          -0.08928769,
          0.06708734,
          0.06089736,
          -0.07761268,
          -0.01655412,
          0.06851052,
          0.03741152,
          0.03107176,
          0.04437997,
          0.03785143,
          -0.01895077,
          0.02822252,
          0.0094955,
          0.05274775,
          0.00495453,
          -0.04569034,
          0.01023094,
          0.03010527,
          0.04187305,
          0.05304702,
          -0.00095477,
          0.05642411,
          0.02651889,
          -0.05301472,
          -0.03554715,
          0.09454513,
          0.02400355,
          -0.00621249,
          -0.03597578,
          0.05699496,
          -0.00316857,
          -0.06631829,
          -0.00142817,
          0.02201748,
          -0.0160591,
          0.09260101,
          -0.03210827,
          -0.07189539,
          0.08654168,
          0.055244,
          -0.05474276,
          0.02332261,
          0.09296466,
          -0.00881021,
          -0.01871896,
          0.04697443,
          0.00319163,
          -0.09105541,
          -0.05280392,
          0.02652296,
          0.08541018,
          0.07893743,
          -0.04489491,
          0.08021109,
          0.08129828,
          0.07651214,
          0.01260033,
          0.00576266,
          -0.07976622,
          0.03182633,
          0.05202906,
          0.05159863,
          -0.00695371,
          0.01204673,
          -0.01480168,
          -0.00210341,
          -0.09106194,
          -0.08922814
        ],
        [
          0.02268136,
          0.06087288,
          0.08953999,
          0.0384706,
          -0.07462031,
          0.0392158,
          0.01127645,
          0.02783562,
          -0.0399123,
          -0.00839053,
          0.07293114,
          0.0786289,
          0.08258638,
          -0.09640882,
          -0.03991744,
          0.06855841,
          0.04091164,
          -0.08359149,
          -0.0485978,
          -0.02245523,
          -0.01017173,
          0.00528796,
          -0.08063634,
          -0.04543579,
          -0.00145442,
          0.05939876,
          -0.05463996,
          0.05359708,
          -0.01617052,
          0.07187075,
          -0.00281389,
          -0.04292973,
          0.08800378,
          0.0084978,
          -0.03140244,
          0.06473906,
          -0.083681,
          0.04401167,
          0.00005909,
          -0.06692892,
          -0.02509787,
          0.03487626,
          -0.07295264,
          -0.03385953,
          -0.06939571,
          0.00233003,
          0.03533791,
          0.03195992,
          0.06300329,
          -0.0262767,
          0.04936726,
          0.06944711,
          -0.0405334,
          -0.08368536,
          0.05658135,
          -0.06496178,
          -0.00742764,
          -0.02625065,
          0.07215315,
          -0.02950705,
          0.05916144,
          0.0010271,
          -0.01096205,
          -0.04765111,
          -0.07207534,
          -0.08853374,
          0.00559427,
          0.06785021,
          -0.05870282,
          0.08970308,
          -0.00103687,
          0.07273378,
          0.05399325,
          0.03710671,
          -0.02958938,
          0.05498878,
          -0.02684063,
          0.04075918,
          0.07585509,
          -0.08794401,
          -0.01643173,
          0.02174701,
          0.01978806,
          -0.04502225,
          -0.03741261,
          0.0075819,
          -0.05982265,
          -0.05732188,
          0.07793312,
          0.02535207,
          -0.09589057,
          0.01754633,
          -0.04608908,
          -0.08151491,
          -0.0796024,
          -0.01227893,
          0.0928888,
          -0.03201747,
          -0.01241572,
          0.08174891,
          0.03934161,
          0.01376128,
          0.00363039,
          -0.07298028,
          0.00628802,
          0.03464343,
          -0.07512417,
          -0.04561164,
          -0.06969458,
          0.0263185,
          -0.08134196,
          0.05363271,
          0.02334392,
          0.00151061,
          -0.06250994,
          -0.07065413,
          -0.06055176,
          -0.00800161,
          0.08135647,
          -0.07159264,
          -0.06414571,
          0.00911185,
          -0.01604727,
          -0.08922929,
          0.02398277,
          -0.02962669,
          0.08351034,
          0.04030175,
          0.07435947,
          -0.04296381,
          0.09137763,
          0.05500954,
          -0.04179779,
          -0.09022993,
          0.04561748,
          0.07024541,
          -0.07335707,
          0.07489172,
          0.01380755,
          -0.07417538,
          0.01352041,
          0.00715168,
          -0.04487358,
          -0.05964795,
          -0.06359598,
          -0.04003265,
          0.06133946,
          0.04343785,
          0.08106775,
          0.01073804,
          -0.03274678,
          0.0140459,
          0.0865211,
          0.04496029,
          -0.08236154,
          0.07678133,
          0.05377592,
          -0.09393574,
          0.03526073,
          -0.07269983,
          0.0267217,
          0.078187,
          0.0517132,
          0.07428817,
          -0.055796,
          0.02898503,
          0.03037052,
          0.02892738,
          -0.08514699,
          -0.00998588
        ],
        [
          0.01132317,
          -0.08695006,
          0.04155426,
          -0.06794941,
          -0.01486473,
          0.00836106,
          -0.06896035,
          0.0941196,
          0.07586967,
          0.0855767,
          -0.04235992,
          -0.09520724,
          -0.08398078,
          -0.07738933,
          -0.07288066,
          -0.05235353,
          0.08200173,
          0.06346281,
          -0.01770303,
          0.06763016,
          -0.04810537,
          -0.02963777,
          0.01314485,
          -0.03454208,
          -0.02497875,
          0.07649699,
          -0.01393441,
          -0.08445317,
          0.03035215,
          -0.00385605,
          -0.05762627,
          -0.08098594,
          -0.0735844,
          0.0099873,
          -0.07057928,
          0.01806449,
          -0.03381496,
          -0.02261862,
          0.07012139,
          0.07466216,
          -0.09116492,
          -0.04610308,
          0.06204603,
          -0.02612033,
          -0.09090096,
          -0.03359746,
          0.09266211,
          -0.02134984,
          -0.02378999,
          -0.05203735,
          0.08301038,
          0.07751435,
          0.06452925,
          -0.08132917,
          -0.06101618,
          -0.04298707,
          -0.08199874,
          -0.07868428,
          0.08579073,
          0.04455597,
          0.0251551,
          0.06110847,
          -0.01785644,
          0.08993561,
          -0.02312193,
          -0.07875104,
          0.04068363,
          -0.06719552,
          -0.0704404,
          0.06638172,
          -0.04410024,
          0.07578543,
          -0.03040371,
          -0.00686523,
          -0.03551433,
          -0.02106562,
          0.03608445,
          -0.00966477,
          0.03677652,
          0.01492567,
          0.09320246,
          0.0916533,
          -0.03270896,
          0.02961854,
          0.01047238,
          0.05215571,
          0.0744202,
          0.05904224,
          0.0610308,
          -0.07667766,
          0.04484832,
          0.07200685,
          -0.08449562,
          0.02070164,
          0.07558597,
          -0.09747662,
          0.07845552,
          0.00344019,
          -0.07890596,
          -0.01762222,
          -0.07175126,
          -0.02874776,
          0.05031269,
          0.08582874,
          0.04785982,
          0.05736879,
          -0.0742675,
          -0.03402996,
          0.0010412,
          -0.07334079,
          -0.04442787,
          0.04342322,
          -0.07764958,
          -0.03759832,
          0.04117585,
          0.06773186,
          -0.02409378,
          0.03964885,
          0.03604979,
          0.02019394,
          0.03957409,
          0.00906307,
          -0.0215139,
          -0.07930495,
          0.03002391,
          -0.08766556,
          -0.08492827,
          -0.05463212,
          0.00778901,
          0.08012825,
          0.00528223,
          0.01046846,
          0.01515263,
          0.02353544,
          0.05095814,
          -0.02564053,
          -0.01545657,
          -0.0830821,
          0.00081945,
          0.02052634,
          -0.08653656,
          0.01259136,
          0.09516099,
          -0.05440269,
          0.0740611,
          -0.09026022,
          0.08928358,
          0.06443816,
          0.03821106,
          0.064104,
          0.0710953,
          0.04820397,
          -0.00624236,
          0.03958002,
          0.01383286,
          -0.06931831,
          0.05105294,
          -0.04492137,
          -0.01135278,
          -0.0297205,
          -0.0420013,
          -0.0717562,
          0.02546372,
          0.01474751,
          0.07886307,
          0.06685162,
          -0.05548793,
          -0.00533632,
          0.01511115,
          0.06197499
        ],
        [
          -0.0217867,
          -0.04883852,
          0.01240057,
          0.07831437,
          0.00218082,
          0.00686191,
          0.05190571,
          -0.00198833,
          0.07879018,
          -0.01110476,
          0.070615,
          -0.00556636,
          -0.03660133,
          -0.02088664,
          -0.00245786,
          0.06337663,
          0.09364926,
          -0.01034755,
          -0.02094038,
          -0.05074983,
          0.01604515,
          0.0291221,
          -0.00147084,
          0.0636977,
          -0.04009994,
          -0.01059753,
          -0.09139694,
          0.00424719,
          -0.04620222,
          -0.03821414,
          -0.0268574,
          -0.02487144,
          -0.07908498,
          0.01619098,
          -0.06528952,
          0.03436538,
          -0.03034385,
          -0.01266532,
          0.09091941,
          -0.03242926,
          0.0202149,
          0.06265412,
          0.08498874,
          0.01864631,
          -0.07424483,
          -0.03067066,
          0.01601414,
          -0.00632423,
          -0.02431727,
          -0.09289138,
          -0.00733865,
          -0.00522425,
          0.02846513,
          -0.02299893,
          -0.08239673,
          -0.08059667,
          -0.04623946,
          0.01361286,
          -0.027064,
          0.05214603,
          -0.03737569,
          0.00547567,
          0.05761133,
          -0.05384215,
          -0.09035244,
          0.08481894,
          0.02227163,
          -0.04670732,
          -0.02629042,
          -0.02147409,
          -0.08440441,
          -0.07981523,
          -0.05813692,
          0.03535611,
          0.05519856,
          0.03576689,
          -0.02329383,
          -0.07727664,
          0.06994988,
          -0.0380878,
          -0.02994229,
          0.08510142,
          0.01120947,
          -0.06098343,
          -0.04237827,
          0.08262974,
          -0.00112116,
          0.00315163,
          0.03764532,
          0.04864501,
          0.05049021,
          -0.08045075,
          0.06611866,
          -0.09096897,
          0.08090228,
          -0.05080357,
          -0.05423558,
          -0.02613947,
          0.07842444,
          -0.02421555,
          -0.09579175,
          0.08330779,
          -0.05248643,
          -0.05881325,
          0.06437596,
          0.07389014,
          -0.0866039,
          -0.04275572,
          0.03959486,
          -0.05226675,
          0.08556498,
          0.04077524,
          0.07562942,
          0.08619443,
          -0.00491994,
          0.03127588,
          -0.06718842,
          0.02461371,
          -0.05381309,
          -0.01125424,
          -0.05161732,
          0.01337971,
          0.00197204,
          0.07364033,
          -0.07582855,
          -0.00284369,
          -0.06804765,
          0.04584186,
          0.05868039,
          0.02923289,
          -0.02798192,
          -0.02607998,
          0.074237,
          0.01970527,
          0.02826196,
          -0.09399433,
          0.05090454,
          0.02738443,
          0.03280246,
          -0.00232126,
          -0.06873899,
          -0.01145108,
          0.05183665,
          -0.03253905,
          -0.05059277,
          0.03007276,
          -0.03403483,
          0.00765231,
          -0.02033759,
          -0.06857109,
          0.00063753,
          -0.08614204,
          -0.00444476,
          0.00254295,
          0.02670563,
          0.03845152,
          0.0284615,
          -0.0815674,
          0.02451164,
          0.04262253,
          0.08911584,
          -0.03343954,
          -0.07246769,
          -0.07267126,
          0.02652372,
          -0.07760113,
          0.03027566,
          0.03036923,
          -0.0895853,
          -0.05145464
        ],
        [
          0.05032963,
          -0.09309734,
          -0.05394395,
          -0.04887553,
          0.02138917,
          0.03648367,
          0.02426175,
          -0.02914096,
          0.08157675,
          0.05980574,
          -0.00352889,
          0.01248418,
          -0.02783221,
          -0.0843882,
          -0.00313524,
          0.0699644,
          -0.05560842,
          0.01787215,
          0.06724631,
          0.00513934,
          -0.05393589,
          0.06553599,
          0.0285856,
          0.09126922,
          -0.04439136,
          -0.08599393,
          0.04038356,
          -0.06342489,
          0.01902439,
          0.04264591,
          0.08870749,
          0.03998481,
          0.07470513,
          0.07953442,
          0.05834718,
          0.00555884,
          0.09495674,
          -0.02622816,
          -0.06107972,
          -0.0418074,
          -0.09107605,
          0.03865938,
          -0.00836369,
          0.07423548,
          -0.01807503,
          0.06747285,
          0.08911895,
          -0.00310762,
          -0.02706524,
          0.03009394,
          -0.04575251,
          0.08699514,
          -0.05099188,
          -0.06241268,
          -0.05181539,
          0.04972386,
          -0.0320719,
          -0.06352641,
          0.04825486,
          -0.08060274,
          -0.0538428,
          0.0810747,
          0.06774454,
          0.05234578,
          0.07444278,
          -0.02128356,
          0.08074595,
          -0.02116652,
          0.02300677,
          -0.05927209,
          0.0797264,
          0.03879988,
          0.03103539,
          -0.00327372,
          -0.05434125,
          0.08524406,
          0.01384733,
          -0.04936827,
          0.02815089,
          -0.07028013,
          -0.07935133,
          0.04888938,
          -0.05283062,
          -0.02700508,
          -0.05558397,
          0.08318487,
          0.02700885,
          0.07178345,
          0.00604077,
          -0.02543746,
          0.03420189,
          0.01505216,
          0.06538219,
          0.04401928,
          0.03807099,
          -0.07958504,
          0.03568202,
          0.06236355,
          0.00217032,
          -0.04745713,
          -0.06968029,
          0.04203524,
          -0.07922217,
          0.01955229,
          -0.02835181,
          0.03286236,
          -0.0496765,
          0.08299706,
          -0.02982929,
          -0.03813422,
          0.06299154,
          -0.09519699,
          0.06908043,
          0.03472822,
          -0.0648634,
          -0.00810747,
          -0.00173275,
          -0.06844453,
          0.07538974,
          -0.07058434,
          -0.07438398,
          0.03762113,
          0.00731622,
          -0.09060616,
          -0.02967625,
          0.0304604,
          -0.01163475,
          0.05107196,
          -0.01716778,
          -0.03601318,
          -0.09146847,
          0.03017929,
          0.03302551,
          -0.01523387,
          0.03929918,
          0.0667847,
          0.06124491,
          -0.0355966,
          -0.08210717,
          -0.03220982,
          0.04369054,
          -0.06940294,
          -0.08249477,
          -0.02419982,
          0.05778897,
          -0.01268638,
          0.06887135,
          0.00387492,
          -0.04947325,
          -0.07441827,
          -0.06726979,
          0.01224421,
          -0.05048092,
          -0.0584929,
          -0.06320959,
          0.0729498,
          -0.08400227,
          0.07685293,
          -0.07576117,
          -0.05298856,
          -0.04436789,
          0.08478386,
          -0.00212532,
          -0.02163951,
          -0.09171839,
          0.02266772,
          -0.05701823,
          0.00941619,
          0.01193143,
          0.019792
        ],
        [
          0.05061707,
          0.05282411,
          -0.03956257,
          -0.00775129,
          0.07424641,
          -0.07137642,
          0.00264168,
          0.01761146,
          -0.06299098,
          0.00657929,
          0.02616858,
          0.06927524,
          0.09244479,
          -0.00140317,
          0.05173326,
          -0.07948422,
          0.09063147,
          0.04196639,
          0.07012931,
          0.06892898,
          0.04179989,
          -0.04730573,
          0.02772066,
          -0.07423994,
          -0.01284138,
          0.03279973,
          0.07453803,
          0.07675192,
          0.02366304,
          0.07797041,
          -0.08902721,
          0.07634513,
          -0.02437385,
          0.08976748,
          -0.0069207,
          0.00892298,
          0.03894286,
          -0.06283604,
          0.07968979,
          0.09184581,
          -0.038719,
          0.02963294,
          -0.05982649,
          0.07859787,
          0.07664595,
          -0.00429676,
          -0.03913321,
          0.0281958,
          0.02167564,
          0.00594693,
          -0.01737107,
          0.01970991,
          0.09173516,
          -0.06967455,
          0.03867637,
          -0.03005668,
          -0.00506513,
          0.06289194,
          0.0802465,
          0.06120602,
          -0.05585458,
          0.03980673,
          -0.04024301,
          -0.07454519,
          -0.00142847,
          0.02239729,
          -0.07856515,
          0.04941507,
          0.00246574,
          0.08662857,
          -0.00135084,
          0.05036444,
          0.06491888,
          -0.04394211,
          0.0437985,
          -0.03620025,
          0.03921489,
          0.01673893,
          0.00021606,
          0.07633933,
          0.03297191,
          -0.08069404,
          0.01176584,
          0.01162133,
          0.00011915,
          -0.00823811,
          -0.08947464,
          0.01630012,
          0.07955999,
          0.00255425,
          0.08158903,
          -0.04301198,
          -0.0246835,
          -0.06396199,
          0.02876438,
          0.00140381,
          0.03696324,
          0.08422428,
          0.04806575,
          -0.01465493,
          -0.04399641,
          -0.05018798,
          0.01595704,
          -0.03169433,
          -0.02432179,
          -0.00289395,
          -0.0551461,
          -0.09261665,
          0.09015249,
          -0.0296224,
          0.01524964,
          0.06534408,
          0.04229589,
          -0.02661502,
          -0.09420369,
          -0.09462982,
          -0.01042931,
          0.0085378,
          0.05627154,
          0.03153279,
          -0.03659037,
          -0.0192617,
          -0.01262752,
          0.01862983,
          0.09244743,
          -0.09457515,
          0.03826234,
          0.03948856,
          0.07515386,
          -0.09266472,
          0.035167,
          0.05063993,
          0.09296165,
          -0.07458483,
          -0.03309381,
          -0.06564684,
          -0.01842125,
          0.06809564,
          -0.05362724,
          -0.06464458,
          0.05840694,
          0.01820419,
          0.00467547,
          0.0358189,
          0.01581143,
          -0.06899245,
          0.01608219,
          0.04033959,
          0.01923981,
          0.04712107,
          -0.02143712,
          0.09347512,
          0.05626066,
          0.00086946,
          -0.01651519,
          -0.00483849,
          0.06774392,
          0.0191576,
          -0.01896284,
          -0.05375398,
          -0.01249995,
          0.03794813,
          0.0080139,
          0.06249285,
          0.02185721,
          -0.01332214,
          -0.05650696,
          -0.08750551,
          0.04937594,
          -0.07961163
        ],
        [
          -0.08871581,
          0.08671596,
          -0.02228507,
          -0.05516157,
          0.04613497,
          -0.07568888,
          -0.03943594,
          0.00499651,
          -0.02486127,
          -0.05751538,
          0.03475335,
          0.06805484,
          -0.06537367,
          0.06758106,
          -0.03363894,
          0.07814221,
          -0.08642112,
          0.0573342,
          0.01424041,
          -0.01255471,
          -0.0120346,
          -0.07232465,
          -0.00647549,
          -0.03289168,
          -0.08240008,
          0.07485964,
          -0.02213038,
          -0.06365653,
          -0.00317342,
          0.05984454,
          -0.09318675,
          0.08525135,
          -0.07931785,
          -0.00324791,
          0.00353713,
          0.00211759,
          0.04291665,
          -0.04413783,
          0.03205398,
          0.03400285,
          -0.05536478,
          0.08603352,
          0.08711455,
          0.0031543,
          -0.06949032,
          0.01440011,
          0.01387004,
          -0.02147544,
          -0.0360714,
          0.0348113,
          -0.02964029,
          -0.00552675,
          -0.00727831,
          0.0121468,
          -0.04416215,
          -0.01906716,
          -0.04633427,
          -0.02181066,
          -0.00635327,
          0.03662912,
          -0.03149615,
          0.04506886,
          -0.0629306,
          0.03201036,
          -0.02856186,
          0.04776911,
          0.05056672,
          -0.03163316,
          0.08708514,
          0.01527377,
          0.01912974,
          -0.04818697,
          0.03350176,
          0.08201622,
          0.08682709,
          0.04563735,
          0.07769451,
          -0.06525712,
          0.0634938,
          0.05061719,
          -0.05283414,
          0.02182935,
          0.08848858,
          0.04065252,
          -0.06367647,
          -0.09189001,
          0.00391445,
          0.05324776,
          -0.09323808,
          -0.00566439,
          -0.07349025,
          -0.02607912,
          0.09314749,
          -0.04310797,
          -0.08828372,
          -0.04210588,
          -0.00872234,
          -0.06773978,
          0.01213786,
          0.03265564,
          -0.01924378,
          -0.00485664,
          0.00876716,
          -0.07785135,
          0.06282781,
          -0.0268703,
          0.00859711,
          0.05592607,
          0.04093563,
          0.05430994,
          0.01005753,
          0.0654718,
          -0.07853689,
          0.04966068,
          0.03012186,
          0.0693819,
          -0.02472676,
          -0.02281584,
          -0.04940068,
          0.00342891,
          0.06495051,
          -0.07517099,
          -0.0275709,
          0.0546321,
          0.02334559,
          -0.06982238,
          -0.02767792,
          -0.05712266,
          -0.04098683,
          0.0166258,
          0.0200901,
          -0.05281929,
          -0.09023468,
          0.09070166,
          -0.04393843,
          -0.07689095,
          -0.03168384,
          0.05861903,
          -0.00999853,
          -0.0828663,
          0.07938794,
          0.08817038,
          -0.03548566,
          0.06827434,
          -0.06330548,
          -0.04210455,
          -0.07837455,
          0.01237509,
          -0.05878915,
          0.0159383,
          -0.04649657,
          -0.04420961,
          -0.09306523,
          -0.02550368,
          0.02959879,
          0.01477296,
          -0.07404078,
          -0.03196201,
          0.04012276,
          -0.0637829,
          -0.09326639,
          -0.01962585,
          -0.00143077,
          -0.01252163,
          0.00335299,
          -0.06077063,
          -0.01917825,
          -0.07315074,
          -0.08603464,
          0.04815405
        ],
        [
          -0.04694756,
          -0.08970781,
          -0.05569628,
          0.0831671,
          0.0435597,
          -0.04898348,
          0.04497748,
          0.02515541,
          -0.07309554,
          0.06530394,
          -0.01767614,
          0.01311343,
          0.07492245,
          -0.01186404,
          0.02087455,
          -0.02537047,
          -0.09320934,
          -0.0320154,
          0.07218157,
          -0.02154561,
          -0.02271352,
          0.00776171,
          0.01433434,
          -0.03638307,
          0.08246876,
          -0.06959596,
          -0.09080256,
          -0.03715167,
          0.01399821,
          -0.0756669,
          -0.01261168,
          -0.09495854,
          0.09113724,
          0.09200452,
          0.05977425,
          0.0069973,
          -0.00726719,
          -0.03629254,
          0.02660068,
          -0.04148853,
          -0.05548736,
          0.08548754,
          -0.07278884,
          -0.00449667,
          -0.07946032,
          -0.08301776,
          -0.02684957,
          -0.0591649,
          -0.02095283,
          -0.05759149,
          -0.00319767,
          0.03405926,
          -0.03233135,
          -0.05812184,
          -0.01218386,
          -0.03506307,
          -0.01242588,
          -0.00186831,
          -0.04494447,
          0.0927098,
          -0.09161044,
          0.01249428,
          0.01293946,
          -0.00063877,
          -0.06207029,
          -0.02464397,
          -0.0059891,
          -0.0751132,
          -0.02704211,
          -0.04301903,
          -0.02632591,
          0.05930921,
          0.02878717,
          0.06201637,
          0.0055743,
          -0.01338489,
          0.08245783,
          0.05603636,
          0.0692965,
          -0.0330363,
          0.04641804,
          0.09319033,
          -0.01829447,
          0.0857311,
          0.05870813,
          0.00981908,
          0.01617788,
          -0.08033742,
          0.03856147,
          -0.06794405,
          -0.08252889,
          0.03050319,
          -0.00793398,
          -0.03616444,
          0.01306302,
          0.08308394,
          0.00166675,
          -0.05119954,
          0.05069017,
          -0.00157574,
          0.04196886,
          -0.03653105,
          -0.06439894,
          0.02249732,
          0.09171267,
          -0.06412986,
          0.0550708,
          -0.09018459,
          -0.05955699,
          0.04275537,
          0.05347461,
          -0.06531459,
          -0.09411781,
          -0.03452627,
          -0.05237,
          0.08091773,
          0.05156624,
          -0.06719841,
          -0.06033168,
          -0.05685887,
          0.00396874,
          -0.09539079,
          0.04147904,
          -0.0061792,
          -0.02646241,
          -0.02146899,
          -0.08726619,
          -0.02350352,
          -0.0807001,
          -0.02805612,
          -0.08936764,
          0.02887456,
          -0.04185366,
          -0.0838965,
          0.01218204,
          0.02720379,
          0.04902023,
          0.01159216,
          0.07913935,
          -0.0385293,
          0.00851493,
          -0.05270663,
          -0.0449177,
          -0.05276636,
          -0.05207483,
          0.02636372,
          0.02798842,
          -0.03199077,
          0.0393597,
          0.09288777,
          0.07319362,
          -0.08488181,
          -0.06113424,
          0.0873003,
          -0.03618612,
          0.06695516,
          0.0517051,
          0.07496719,
          0.09009629,
          -0.06932241,
          0.0201985,
          0.08895985,
          0.07502328,
          0.04547596,
          0.03040995,
          -0.07511804,
          0.03996742,
          0.07939627,
          -0.0753369,
          0.07632265
        ],
        [
          -0.04695257,
          0.05776427,
          -0.043065,
          0.0895395,
          -0.03304418,
          -0.07753261,
          -0.08950953,
          0.09406218,
          0.01761865,
          0.02350399,
          0.03468411,
          0.03834002,
          0.002272,
          -0.00403571,
          0.00442793,
          0.03313791,
          -0.00034118,
          0.03668168,
          -0.04113221,
          -0.07245495,
          0.02105747,
          -0.02592521,
          0.08202033,
          0.04735488,
          0.02637951,
          -0.02291521,
          -0.09132114,
          0.02552246,
          0.00494983,
          0.05916497,
          -0.03329348,
          0.02882359,
          0.04525223,
          -0.05719492,
          0.08962107,
          -0.0924784,
          0.07433328,
          -0.01834945,
          0.05930024,
          -0.07439336,
          0.01697871,
          0.01648078,
          -0.0613799,
          -0.01251503,
          -0.01620882,
          -0.06754479,
          0.04696706,
          -0.08530583,
          -0.00316587,
          0.05544908,
          -0.08951561,
          0.00416834,
          0.02450287,
          0.08404872,
          -0.07589091,
          0.03655731,
          -0.07859082,
          -0.06760923,
          -0.08508498,
          0.03674119,
          -0.03039536,
          0.08498016,
          0.00907734,
          -0.00297246,
          -0.06523846,
          0.01261561,
          0.0752539,
          0.01056962,
          -0.07796957,
          0.02461502,
          0.02108196,
          -0.0112178,
          -0.06779324,
          -0.0501855,
          0.0654949,
          -0.05412943,
          -0.0880084,
          0.03036041,
          -0.05484155,
          -0.07247451,
          -0.04549116,
          0.07680264,
          0.03263075,
          -0.04885963,
          0.04820278,
          0.04078113,
          -0.01385776,
          -0.0135832,
          0.03237329,
          0.00310849,
          0.05252811,
          -0.01451367,
          -0.09417407,
          0.07394077,
          -0.04178122,
          0.05288805,
          0.02360063,
          -0.08946781,
          0.08579885,
          -0.07281196,
          0.00580064,
          0.07870544,
          0.08807143,
          -0.04280866,
          -0.08187644,
          -0.047209,
          0.07573619,
          -0.01134668,
          0.01038217,
          -0.03360347,
          -0.05520478,
          0.04609241,
          -0.0448002,
          0.03304089,
          -0.06405245,
          -0.0209504,
          0.05426881,
          -0.06175815,
          0.01741415,
          0.02252612,
          0.09383863,
          0.03182515,
          0.08088879,
          0.03535901,
          -0.04770863,
          0.05380295,
          -0.02365046,
          -0.08896551,
          -0.0078121,
          -0.07779456,
          0.00352596,
          0.02754719,
          -0.08155608,
          0.06877478,
          0.0552028,
          0.07640705,
          0.04917437,
          -0.04702243,
          0.0834193,
          -0.05928817,
          -0.04815049,
          0.023401,
          -0.01128119,
          0.03322581,
          0.08052436,
          -0.02541287,
          -0.00137817,
          -0.01461953,
          -0.01172919,
          0.09061714,
          -0.08847488,
          0.05309538,
          -0.04824321,
          -0.0455358,
          0.01257945,
          0.0044537,
          -0.02657951,
          -0.0384811,
          -0.03300862,
          -0.06230671,
          -0.01937819,
          -0.08577567,
          0.00308202,
          -0.05158441,
          0.08819384,
          -0.03841786,
          -0.03906231,
          0.03657559,
          0.01870146,
          0.07591637
        ],
        [
          0.01654081,
          -0.00624136,
          -0.04090723,
          -0.05182303,
          0.05469566,
          0.08696488,
          -0.09192238,
          0.00270845,
          0.02034909,
          0.03317647,
          0.09402248,
          0.03041489,
          0.04401907,
          -0.0400871,
          -0.08250853,
          0.09360125,
          0.03583296,
          0.01881638,
          0.06561113,
          0.0176709,
          0.04809892,
          0.02839057,
          0.04693185,
          0.05112078,
          0.06389504,
          -0.03710193,
          -0.0288488,
          0.06666373,
          0.02144474,
          0.02865977,
          -0.01139893,
          -0.09067873,
          0.0369321,
          -0.02002405,
          -0.07732676,
          0.03539576,
          0.00030455,
          0.06191327,
          -0.06585347,
          -0.0947707,
          0.00143192,
          0.0714343,
          0.03659858,
          -0.03564002,
          -0.06655185,
          -0.06455598,
          0.03527569,
          -0.03567236,
          0.08335692,
          0.03590493,
          -0.01437041,
          -0.03943363,
          0.06129749,
          0.00735591,
          0.08730208,
          0.02968372,
          0.04413016,
          0.01460205,
          0.06179597,
          -0.047967,
          0.08274551,
          0.08975564,
          0.08430062,
          0.07327808,
          -0.04717915,
          -0.04248293,
          0.05045442,
          0.08763067,
          -0.03229198,
          -0.05818302,
          -0.08350317,
          -0.09370052,
          0.03503097,
          0.06459567,
          -0.04067794,
          0.03269581,
          -0.06950955,
          -0.06366537,
          -0.09180713,
          -0.09228355,
          -0.09442349,
          0.04651853,
          0.02758113,
          -0.00072931,
          0.02711046,
          -0.04289342,
          0.05551085,
          -0.05457846,
          0.08047721,
          0.05371188,
          0.04093306,
          -0.06079049,
          0.07958666,
          0.08785976,
          -0.00229357,
          0.02875005,
          0.07966705,
          -0.0259364,
          0.0188867,
          -0.01404913,
          -0.07945373,
          0.05242343,
          0.04520914,
          0.01198982,
          0.09085337,
          0.00449727,
          -0.01080717,
          0.09138193,
          0.00441464,
          0.02067588,
          -0.0839347,
          0.02555613,
          0.06514209,
          -0.06465471,
          0.06911046,
          -0.07783321,
          -0.05771938,
          0.06540195,
          0.04496588,
          0.08128899,
          -0.01380608,
          0.0050939,
          0.07628685,
          0.02833692,
          -0.07968918,
          0.09097509,
          0.06314121,
          0.02567614,
          0.06309564,
          -0.05743288,
          0.04023662,
          0.02479092,
          -0.08039433,
          -0.04220699,
          -0.00587935,
          -0.05506261,
          0.05139529,
          0.06886411,
          -0.09114355,
          -0.00249192,
          -0.03233522,
          0.05704607,
          -0.04115591,
          0.0083519,
          0.04241165,
          0.05328938,
          0.06343639,
          0.06329414,
          -0.08790015,
          -0.02458836,
          -0.06355098,
          -0.01333305,
          0.03313485,
          -0.05086186,
          -0.06914161,
          -0.0484966,
          0.05089402,
          0.00101301,
          0.0089754,
          0.02025299,
          -0.07528355,
          -0.00875314,
          0.07843761,
          -0.06261009,
          -0.07370887,
          0.01853668,
          0.08698919,
          0.0526638,
          -0.02068477,
          -0.09290925
        ],
        [
          -0.05764249,
          0.00883143,
          0.01141197,
          -0.06546673,
          0.03757714,
          -0.08106417,
          0.09271621,
          -0.08799542,
          -0.08228184,
          0.0490287,
          -0.09319515,
          0.02729434,
          -0.04682444,
          0.00785491,
          -0.03669577,
          0.05739611,
          -0.07210836,
          0.04134737,
          -0.08605041,
          0.09142067,
          -0.07660401,
          -0.03253971,
          -0.00403291,
          0.04555981,
          -0.00863679,
          0.0114799,
          0.0081247,
          -0.01069877,
          0.0488223,
          -0.07959116,
          -0.05450581,
          0.0119809,
          0.07094767,
          0.01757749,
          0.03471918,
          -0.01723357,
          -0.01474528,
          0.02279337,
          -0.04998185,
          0.03915306,
          0.06751491,
          -0.00352824,
          0.07516506,
          -0.08598378,
          -0.06977872,
          0.035363,
          0.00507865,
          0.08331422,
          -0.06163925,
          -0.09213494,
          0.09291524,
          -0.01757041,
          -0.05754624,
          -0.08456963,
          -0.01453629,
          -0.07601068,
          0.08047761,
          -0.02670048,
          0.00523094,
          -0.02183024,
          -0.02815983,
          0.00268761,
          -0.03366492,
          -0.07319866,
          -0.01745067,
          -0.00600183,
          -0.00934559,
          0.02894258,
          0.00020048,
          -0.08961373,
          -0.08921779,
          -0.03602722,
          -0.06573263,
          0.05113164,
          0.08457203,
          -0.01242182,
          -0.08355599,
          0.00349018,
          -0.04914574,
          -0.05299246,
          -0.06852937,
          0.04800131,
          0.09522403,
          -0.06158915,
          -0.06035081,
          -0.04996254,
          -0.01112944,
          -0.01721102,
          -0.09487558,
          -0.07746294,
          0.09416579,
          -0.09244512,
          -0.03671325,
          -0.00743601,
          0.08515942,
          -0.00299594,
          -0.0246959,
          0.01896234,
          -0.01140615,
          -0.01988956,
          -0.05290597,
          -0.0549674,
          0.01090536,
          -0.02156265,
          -0.07870943,
          0.06689707,
          0.07902162,
          0.05042494,
          -0.06336959,
          0.00495204,
          -0.07423228,
          -0.05339059,
          -0.09456435,
          0.00507478,
          0.07967033,
          0.08143852,
          -0.0410198,
          -0.03253968,
          -0.02124291,
          -0.06512816,
          -0.0307426,
          0.07793638,
          -0.05814578,
          0.05229805,
          -0.01702236,
          0.02387301,
          -0.06282866,
          -0.0016057,
          0.03867079,
          0.01109308,
          0.05414209,
          -0.04573984,
          -0.04832605,
          -0.07305973,
          -0.02295682,
          0.0504787,
          0.0547673,
          0.09177892,
          -0.07408797,
          -0.06257308,
          -0.06649556,
          0.07307502,
          0.001011,
          -0.07037275,
          0.07248301,
          0.07372198,
          0.02154448,
          0.09146086,
          -0.0693984,
          -0.05056452,
          -0.02964714,
          0.08525053,
          0.08018319,
          0.09392849,
          0.05110948,
          0.00774028,
          -0.09326086,
          -0.02045875,
          -0.02766255,
          -0.06437702,
          0.02991264,
          -0.01714938,
          -0.08992931,
          0.06080377,
          -0.01093985,
          -0.03091955,
          -0.08503503,
          0.08959707,
          -0.06820049,
          0.043788
        ],
        [
          0.0333566,
          -0.03000527,
          -0.03874213,
          0.06170194,
          0.00431512,
          0.07977073,
          0.03036984,
          0.08789484,
          -0.01011127,
          -0.01247934,
          0.02832592,
          0.02435986,
          0.00803532,
          -0.07945946,
          0.03555695,
          0.01540931,
          -0.04280684,
          -0.0043452,
          0.0908771,
          0.02209667,
          0.05197148,
          0.03907713,
          0.05550815,
          -0.12416536,
          -0.08786549,
          0.0208746,
          -0.07133085,
          0.02515767,
          0.06159724,
          -0.01087041,
          -0.03385882,
          0.02000739,
          0.02812575,
          -0.03297414,
          -0.06292663,
          0.05022589,
          0.05080788,
          0.04164858,
          0.03362611,
          -0.27080604,
          -0.09122066,
          0.00319954,
          0.01281951,
          -0.06716361,
          -0.02872672,
          -0.12046848,
          -0.05409442,
          0.02030687,
          0.04921366,
          0.07797355,
          0.00033301,
          -0.09120223,
          0.09977986,
          -0.05276747,
          0.08091702,
          -0.12864997,
          -0.00341808,
          0.01320568,
          0.01067836,
          -0.08397236,
          0.06824618,
          -0.07248207,
          -0.02170562,
          -0.02355383,
          -0.06772954,
          -0.03177173,
          0.05329375,
          0.05748612,
          0.0148516,
          -0.03201041,
          0.02369716,
          -0.00133656,
          -0.0256115,
          -0.08441677,
          0.02234989,
          -0.03225934,
          -0.08096469,
          0.0032902,
          0.04446824,
          0.08976082,
          -0.08018159,
          -0.09863098,
          0.00677127,
          -0.06954257,
          0.07288028,
          0.05311923,
          -0.02869372,
          -0.15083058,
          0.00967585,
          0.02809615,
          -0.03789362,
          0.0148466,
          0.01921231,
          0.00378889,
          0.01619105,
          -0.0262891,
          0.00949311,
          0.02865664,
          0.00186348,
          0.02564059,
          -0.03624574,
          -0.04550265,
          0.06087943,
          0.01844164,
          -0.07079209,
          -0.08439679,
          0.06475462,
          -0.09268544,
          -0.07570925,
          0.09297926,
          -0.0934624,
          -0.01538217,
          -0.08205702,
          -0.03123914,
          -0.08007918,
          0.04294631,
          0.07360333,
          0.09783351,
          -0.05529795,
          0.01015459,
          -0.01983959,
          0.01282516,
          -0.04359757,
          0.02431165,
          -0.05080451,
          0.06840281,
          -0.04095892,
          -0.07958604,
          -0.0148812,
          -0.00441787,
          -0.06904128,
          0.00441229,
          -0.06277744,
          -0.0404937,
          0.03234059,
          -0.04103321,
          -0.02807688,
          -0.03367178,
          -0.0538645,
          -0.09512812,
          -0.0479339,
          -0.00224467,
          0.08265215,
          0.02432335,
          0.04693874,
          0.02481722,
          -0.05176903,
          -0.20433914,
          0.06099826,
          -0.02245761,
          0.0301299,
          0.0010941,
          -0.00997012,
          0.00291342,
          -0.02346198,
          -0.13520967,
          0.06793696,
          0.02946619,
          0.01251035,
          0.06733658,
          0.01822594,
          -0.02478573,
          -0.01948794,
          0.02456481,
          -0.1029043,
          0.05510405,
          0.06595063,
          -0.01901608,
          0.03254718,
          -0.03094138
        ],
        [
          0.01816368,
          -0.06817843,
          -0.00516229,
          -0.00646598,
          -0.04938678,
          -0.04121515,
          -0.05260826,
          0.05944658,
          -0.08901616,
          0.02468474,
          0.02120337,
          0.01191387,
          0.05876983,
          0.01825952,
          0.01523951,
          -0.04509249,
          0.081479,
          -0.00061793,
          0.09206353,
          0.00779798,
          -0.00763776,
          -0.09241379,
          0.07904863,
          -0.00188369,
          -0.06319653,
          -0.07449272,
          -0.05201659,
          0.01050655,
          0.08253196,
          -0.09930577,
          -0.06937694,
          -0.08397105,
          -0.1003031,
          0.01753502,
          0.04331614,
          -0.06873221,
          0.00924589,
          -0.00525915,
          0.00003417,
          -0.11153487,
          -0.12315871,
          -0.08395022,
          0.01062805,
          0.07605862,
          -0.02361785,
          -0.00553158,
          -0.04548265,
          0.04447255,
          -0.02879145,
          -0.07647739,
          0.03731109,
          -0.01035372,
          0.07190668,
          0.07776452,
          -0.05740728,
          -0.10604634,
          -0.05692745,
          -0.02564724,
          -0.00938907,
          -0.02573539,
          0.07882377,
          0.04362242,
          -0.0821623,
          0.0433744,
          0.08263123,
          -0.07090107,
          0.00071519,
          0.0644814,
          0.01278999,
          0.02958869,
          0.01865465,
          -0.08973856,
          0.09112929,
          0.02230971,
          -0.0798677,
          -0.07634472,
          -0.07543724,
          -0.08774925,
          0.06721192,
          0.01160914,
          0.06336926,
          -0.10622115,
          -0.02650665,
          0.01278607,
          -0.00735884,
          0.03407472,
          0.03567984,
          0.02526699,
          -0.06100931,
          0.03782261,
          -0.04092952,
          0.07864939,
          0.0223658,
          -0.03992081,
          0.04492911,
          -0.06792738,
          0.08319433,
          0.01096378,
          -0.1124496,
          -0.06625486,
          -0.00122159,
          0.0262575,
          0.06993034,
          -0.00810288,
          -0.06814167,
          0.09022018,
          -0.01142705,
          0.05001316,
          -0.01918124,
          0.01642869,
          0.00053467,
          0.04541669,
          -0.04745751,
          -0.04041669,
          -0.01239372,
          0.04248283,
          0.05614638,
          0.02414189,
          -0.03543309,
          -0.01196302,
          -0.09005671,
          -0.08204538,
          0.02782693,
          0.06126429,
          -0.04961417,
          -0.08967211,
          0.02265593,
          -0.05167058,
          0.01312902,
          0.00592018,
          0.04325584,
          -0.08210446,
          -0.02999381,
          0.03765398,
          -0.06802549,
          0.05536617,
          -0.0549172,
          0.07071739,
          0.06804844,
          -0.0895034,
          -0.09091187,
          -0.02240752,
          -0.09118989,
          -0.08650063,
          -0.02010088,
          -0.04821549,
          -0.00937255,
          -0.07322945,
          -0.09193425,
          0.01239589,
          -0.05825136,
          -0.00962311,
          0.07206766,
          -0.06976671,
          0.06861543,
          -0.09263636,
          0.08696697,
          -0.05392868,
          0.03470329,
          -0.03958288,
          -0.10354523,
          0.0072237,
          -0.08248592,
          0.03715659,
          -0.03467459,
          -0.06102727,
          -0.03536986,
          0.04175379,
          0.0603094,
          -0.0028406
        ],
        [
          0.0273388,
          0.0849467,
          -0.09113507,
          -0.08009435,
          0.05316355,
          0.06132609,
          -0.0844354,
          -0.05715703,
          -0.00186945,
          0.02029609,
          0.07772167,
          0.0633163,
          0.08800285,
          0.00454716,
          0.03123239,
          0.08536763,
          -0.08523912,
          0.04572568,
          0.00205703,
          0.01416841,
          -0.00714808,
          0.06935283,
          -0.06043193,
          -0.01213234,
          0.02987029,
          0.06676203,
          0.08070214,
          0.00151419,
          0.06925789,
          0.08775159,
          -0.03119389,
          0.00286493,
          0.07017053,
          0.05978485,
          -0.04525384,
          0.06198072,
          0.03494338,
          0.0768914,
          0.05419577,
          0.03604272,
          0.01484318,
          -0.09148799,
          -0.07314648,
          0.07673088,
          -0.03204251,
          -0.08071213,
          0.06405694,
          -0.01257098,
          -0.08692524,
          -0.01213731,
          -0.05694441,
          0.03646673,
          -0.07804477,
          -0.07787866,
          0.00857437,
          -0.09048464,
          0.02607113,
          -0.07910269,
          0.05701596,
          0.03973201,
          -0.07496068,
          -0.06202874,
          0.01250872,
          -0.00412499,
          0.03633621,
          0.06491521,
          -0.01936319,
          -0.05707611,
          0.00478233,
          -0.04482868,
          -0.03580305,
          -0.08811393,
          0.09488681,
          -0.09410587,
          0.04923246,
          0.02163643,
          -0.08056208,
          -0.01286447,
          -0.02923931,
          0.01344495,
          0.05722248,
          -0.01650093,
          -0.04654304,
          -0.02295202,
          0.01475766,
          -0.07775906,
          -0.03398005,
          0.00297079,
          0.06944385,
          0.01884472,
          0.05973252,
          0.07914477,
          0.00792405,
          -0.07651693,
          -0.0004541,
          0.0776009,
          -0.04289628,
          0.0739975,
          0.01351632,
          -0.02651029,
          0.05945309,
          -0.00066606,
          0.03359507,
          0.04125196,
          -0.03174256,
          -0.02822016,
          0.08648049,
          0.01219728,
          -0.07239054,
          -0.01160217,
          0.01266486,
          -0.03741786,
          -0.0718966,
          -0.01285192,
          -0.0283945,
          -0.02121404,
          -0.07128007,
          -0.05849718,
          -0.06685629,
          -0.00854946,
          0.0796681,
          0.08088057,
          0.07065527,
          -0.04649549,
          -0.06534335,
          0.08199242,
          0.02847976,
          0.09421041,
          -0.00002046,
          0.070371,
          0.01603172,
          -0.05046419,
          0.00842574,
          -0.00646835,
          -0.04519111,
          0.05290943,
          -0.06204067,
          0.02920522,
          0.01552154,
          0.0236685,
          0.00343846,
          -0.0660853,
          0.06299165,
          -0.01620104,
          -0.07540729,
          0.02775025,
          -0.0083925,
          0.08784251,
          0.03347662,
          0.0115652,
          0.02549308,
          0.08433831,
          0.05797489,
          0.01422611,
          -0.06087596,
          0.05018424,
          0.00468021,
          0.03864431,
          -0.04189547,
          -0.03643732,
          -0.09219895,
          0.0060665,
          -0.06856193,
          0.06425369,
          -0.03069766,
          -0.04111679,
          0.07710939,
          0.06515002,
          -0.0098337,
          0.00427322
        ],
        [
          0.07868629,
          -0.0794329,
          0.0920393,
          0.0084139,
          -0.02580009,
          -0.03601378,
          0.05254321,
          0.05836349,
          -0.01851994,
          -0.09013363,
          -0.06304294,
          -0.00816326,
          0.02778071,
          0.08666756,
          -0.04874409,
          -0.07206519,
          0.01134506,
          0.03132071,
          -0.08924417,
          0.04822433,
          -0.01479547,
          0.01496992,
          -0.06538077,
          -0.08650676,
          -0.08095481,
          0.03328027,
          -0.05326588,
          0.08804662,
          0.05128105,
          0.0303738,
          -0.01070415,
          0.01559001,
          0.01821617,
          -0.07126643,
          -0.09464979,
          -0.06288226,
          -0.00695285,
          0.09145361,
          -0.02399038,
          -0.09257631,
          -0.04752566,
          0.08711142,
          0.01006594,
          -0.03617139,
          -0.07033405,
          -0.06158567,
          0.06445397,
          -0.01971225,
          0.0769222,
          0.01609112,
          -0.05942898,
          -0.0323701,
          0.0921587,
          0.07915683,
          0.04098334,
          -0.07418194,
          -0.04530024,
          0.05849229,
          -0.0949224,
          0.04961077,
          0.01314879,
          0.08434995,
          -0.05428468,
          -0.01841555,
          -0.09479922,
          0.06159817,
          -0.05003454,
          -0.04307096,
          -0.0631504,
          0.02163596,
          0.01370802,
          -0.01322013,
          0.07468085,
          0.03096204,
          -0.03582645,
          0.07745545,
          -0.06489553,
          0.05651348,
          -0.09429599,
          -0.01897314,
          -0.07897957,
          -0.01372761,
          -0.04207061,
          -0.03654729,
          -0.07286163,
          0.06381838,
          -0.03186604,
          -0.0712616,
          -0.08483669,
          -0.03300511,
          0.03196264,
          0.01165121,
          -0.00193992,
          0.04973689,
          -0.0686082,
          -0.07639523,
          -0.08835732,
          -0.06997033,
          -0.05132908,
          0.02627401,
          -0.01859299,
          0.03105172,
          0.03667347,
          -0.04176663,
          0.03208281,
          -0.04818936,
          0.04903319,
          -0.09174164,
          -0.03008278,
          -0.07353746,
          -0.09454967,
          0.01042451,
          0.05393073,
          -0.00589639,
          -0.04011166,
          -0.04958876,
          0.08487304,
          0.02962402,
          0.03852964,
          0.06779959,
          0.07738365,
          -0.0451807,
          -0.05716279,
          0.01972638,
          -0.074801,
          0.08911539,
          0.06485259,
          -0.06046165,
          0.01042735,
          0.02876182,
          0.00188998,
          0.07810672,
          -0.02902117,
          0.02830426,
          0.09209317,
          0.01170246,
          -0.02150877,
          -0.01633116,
          0.09465899,
          0.08642988,
          0.05695689,
          0.08200609,
          -0.03446526,
          0.01440878,
          -0.02936944,
          0.01782308,
          -0.06216433,
          -0.03704986,
          -0.07696255,
          -0.06471147,
          0.06747471,
          0.02078174,
          -0.07490869,
          -0.00597924,
          -0.01347961,
          0.0335496,
          0.07354619,
          -0.04176257,
          -0.07852933,
          -0.08017911,
          -0.09389607,
          0.09042366,
          -0.04662427,
          0.04448983,
          -0.04571345,
          -0.0382294,
          -0.04339147,
          -0.02551554,
          0.04670957,
          0.06149225
        ],
        [
          0.05952309,
          -0.07452693,
          -0.03507543,
          0.04618557,
          0.0040335,
          -0.08558429,
          0.07611755,
          0.05442143,
          -0.0885851,
          -0.00925388,
          -0.03763644,
          0.07901804,
          0.01197671,
          0.06699468,
          -0.07071255,
          0.06778819,
          -0.05562963,
          -0.06322727,
          -0.04899781,
          0.0105988,
          -0.01721571,
          0.07622279,
          -0.08788434,
          -0.05089194,
          -0.04016654,
          -0.0799609,
          0.07438162,
          0.01516206,
          0.05729255,
          -0.0887655,
          -0.01819673,
          -0.04917082,
          0.07087488,
          0.06553099,
          -0.05325791,
          -0.03174605,
          0.06199057,
          -0.03756738,
          0.08732517,
          -0.00751726,
          0.06021144,
          -0.07714404,
          -0.00106151,
          0.05535085,
          0.06990273,
          0.06685838,
          -0.07613776,
          0.03169277,
          -0.04876479,
          0.06150191,
          -0.08664474,
          0.07177674,
          0.0475251,
          0.03766743,
          -0.06190154,
          -0.00280492,
          -0.06606868,
          0.01355021,
          -0.06844064,
          -0.02831097,
          -0.00062598,
          -0.01047691,
          0.0315013,
          0.04815947,
          -0.0281226,
          0.00137356,
          0.06507224,
          -0.053905,
          0.04409937,
          0.01489397,
          0.0171531,
          -0.02896176,
          0.06869614,
          0.04400969,
          -0.03709789,
          -0.01660351,
          0.05528918,
          -0.00008539,
          -0.03030662,
          -0.00043366,
          -0.07976288,
          0.06170847,
          -0.01768891,
          0.07634905,
          -0.03196421,
          0.02587997,
          -0.02442066,
          0.09425638,
          0.04798857,
          0.09473641,
          0.03470299,
          -0.01505802,
          0.05547589,
          0.04337422,
          -0.03870884,
          -0.05529233,
          0.02110221,
          0.05209771,
          -0.07102626,
          -0.02140026,
          0.0019993,
          0.01750711,
          0.05754907,
          -0.06643124,
          0.08171005,
          0.05512494,
          -0.02485164,
          -0.01950433,
          0.03922779,
          0.08918549,
          -0.00472377,
          0.03781854,
          0.08689018,
          -0.07950946,
          -0.04804587,
          -0.06391323,
          -0.05941821,
          -0.05135115,
          -0.08343534,
          0.05015791,
          -0.02869845,
          0.05748156,
          -0.05412334,
          0.01971564,
          0.02788392,
          -0.05441665,
          0.02582535,
          0.02185356,
          0.06986351,
          0.00613165,
          -0.03358457,
          -0.04506215,
          -0.04760872,
          -0.09099866,
          0.04737927,
          -0.08426642,
          0.02721823,
          -0.01860277,
          0.04344329,
          -0.0487824,
          -0.034488,
          0.06339805,
          0.036525,
          -0.0717275,
          -0.06100703,
          0.00372157,
          -0.02785228,
          0.08103127,
          0.02241539,
          0.04340584,
          -0.0944381,
          -0.02711132,
          -0.02337164,
          0.04917351,
          -0.03692602,
          0.08293124,
          -0.08700778,
          -0.08411884,
          -0.08936786,
          -0.01216951,
          0.05703866,
          -0.08262699,
          0.00779638,
          0.06293296,
          0.06919862,
          -0.01364628,
          0.06434066,
          0.03894108,
          0.01537471,
          -0.09441425
        ],
        [
          0.0589007,
          0.026102,
          -0.0868026,
          -0.01244272,
          0.07384563,
          -0.00902662,
          -0.05304984,
          -0.04340166,
          -0.01330717,
          0.00932038,
          0.003718,
          -0.02599314,
          0.03442419,
          0.06773345,
          -0.06788162,
          0.06781659,
          0.07489521,
          -0.04664126,
          0.01381981,
          -0.02265172,
          -0.01339252,
          0.06717225,
          0.02360939,
          -0.13260034,
          -0.01027504,
          0.04258757,
          -0.09151332,
          -0.06111331,
          0.00565153,
          -0.02823929,
          0.08454653,
          -0.09265287,
          -0.09125434,
          0.08407771,
          0.04364447,
          -0.05108204,
          0.05012494,
          -0.09296684,
          0.04121898,
          -0.03819093,
          -0.01137622,
          -0.05196396,
          -0.08998392,
          0.03558281,
          -0.05242462,
          -0.01247455,
          -0.06570116,
          -0.01204771,
          0.02950664,
          0.03481766,
          0.01937825,
          0.01837419,
          -0.05289253,
          -0.06040983,
          -0.0846985,
          -0.06635652,
          0.01208326,
          -0.01853254,
          -0.03318953,
          -0.04488306,
          0.02191924,
          0.04601243,
          -0.09263675,
          -0.05106319,
          -0.06264218,
          -0.025949,
          -0.02951056,
          -0.01137459,
          0.07596316,
          -0.04412493,
          -0.00363876,
          -0.06239064,
          -0.01226453,
          0.05120482,
          0.03448827,
          -0.08397387,
          -0.00000946,
          0.04863136,
          -0.07082781,
          0.09227176,
          -0.05543392,
          0.01677024,
          -0.00022653,
          0.02459765,
          -0.06705671,
          0.04023058,
          0.02890351,
          -0.10306174,
          -0.01010338,
          -0.00453677,
          -0.08628829,
          0.02966357,
          -0.0074689,
          0.00665726,
          -0.0917407,
          -0.0467764,
          0.05561708,
          0.0582729,
          -0.06620553,
          0.06503725,
          0.04560374,
          0.0390111,
          -0.02837334,
          0.04294909,
          -0.10135177,
          -0.00593307,
          -0.04984422,
          -0.14502153,
          0.0686242,
          -0.08176911,
          0.01313223,
          0.04426687,
          0.01083601,
          -0.10950116,
          -0.06831665,
          -0.08885084,
          -0.04066211,
          0.01537535,
          -0.03622869,
          -0.02187061,
          0.01085989,
          -0.01754336,
          0.05200062,
          -0.04641917,
          -0.0617494,
          0.02530045,
          -0.00517081,
          -0.03624292,
          0.01828336,
          -0.09833306,
          -0.06798027,
          -0.02350842,
          0.02208699,
          0.07447178,
          -0.03407809,
          -0.01799681,
          0.0954781,
          0.00832783,
          0.00245416,
          -0.033659,
          0.01653264,
          0.05412229,
          -0.01913475,
          0.03078859,
          -0.07378744,
          -0.05464082,
          -0.04388246,
          -0.06375052,
          0.08125106,
          0.01163109,
          -0.01659595,
          -0.06153561,
          0.01788354,
          0.0048422,
          -0.01431637,
          0.00352176,
          0.03636366,
          0.00089007,
          -0.04596627,
          -0.0200874,
          -0.03920086,
          0.03790742,
          -0.05314762,
          -0.06515322,
          0.05263628,
          -0.10738261,
          0.0816299,
          -0.05266274,
          -0.08781096,
          0.01490237
        ],
        [
          0.00835751,
          -0.07113892,
          -0.03722548,
          0.04170703,
          -0.05029731,
          0.06089644,
          0.07876449,
          0.06806083,
          -0.09596204,
          -0.09324189,
          0.00737101,
          -0.07668935,
          0.06303839,
          -0.06082102,
          0.03134336,
          0.07778342,
          0.04646496,
          -0.04971229,
          -0.08905122,
          -0.07642621,
          -0.07086423,
          0.05756967,
          0.00601705,
          0.00183747,
          0.02759977,
          0.06914092,
          -0.01352775,
          0.02979163,
          0.01418814,
          -0.0279186,
          0.02086381,
          -0.08313145,
          -0.0123563,
          0.08043746,
          -0.0488381,
          -0.05784323,
          0.02247949,
          0.047069,
          0.02010118,
          -0.10618185,
          -0.08864303,
          -0.05565435,
          -0.06430107,
          -0.06597898,
          0.04085237,
          0.05892284,
          0.05156458,
          0.09008154,
          0.02238194,
          -0.00532824,
          0.00942667,
          -0.09392999,
          -0.06319523,
          -0.08377712,
          0.07977562,
          -0.0623061,
          0.03071001,
          -0.04155576,
          0.05236012,
          -0.07135371,
          -0.03080447,
          0.06705919,
          -0.07721148,
          0.01489183,
          -0.02716309,
          -0.01764863,
          -0.04798254,
          -0.06921229,
          -0.03899659,
          -0.05384326,
          0.01014208,
          -0.04077643,
          0.05279943,
          0.01436044,
          0.02975258,
          -0.03380355,
          -0.09012897,
          -0.01605863,
          0.02917732,
          -0.02339906,
          0.0732134,
          -0.06305332,
          -0.04823703,
          -0.03221491,
          -0.05587421,
          0.07125005,
          -0.03178664,
          0.05245553,
          0.04918156,
          -0.08981763,
          0.0361976,
          0.01968214,
          0.02464536,
          0.01167853,
          0.0596091,
          -0.02146298,
          0.03405387,
          -0.07756921,
          -0.00895388,
          0.07269266,
          -0.08199416,
          0.06247331,
          0.02566684,
          -0.02394563,
          0.07194825,
          0.07059519,
          -0.04566688,
          0.00113956,
          -0.03706202,
          0.01297987,
          -0.03203063,
          -0.06896296,
          0.04837116,
          -0.00729503,
          -0.06682866,
          -0.05698227,
          -0.02958618,
          0.10235746,
          -0.0531629,
          -0.09502557,
          -0.05693129,
          0.07248275,
          0.09004794,
          0.02977242,
          0.06276981,
          0.05301051,
          -0.01283723,
          0.05507622,
          0.02355329,
          -0.08492655,
          0.05633472,
          0.07345838,
          0.08288456,
          -0.00545087,
          -0.00334934,
          0.00846406,
          -0.05261732,
          -0.07732281,
          -0.0367494,
          -0.03101011,
          0.02555225,
          -0.04731252,
          -0.02983186,
          0.05018343,
          -0.08931406,
          0.04057116,
          0.01086379,
          0.01208135,
          -0.06659608,
          -0.05964186,
          0.05516606,
          0.01447334,
          -0.05941216,
          0.04009073,
          0.07224529,
          -0.05670428,
          0.0677243,
          -0.07562521,
          0.09365332,
          0.0496809,
          -0.09013101,
          -0.08026069,
          -0.05022046,
          0.04313457,
          -0.09240871,
          0.05803695,
          0.04188169,
          -0.08464366,
          0.05554561,
          -0.0405429
        ],
        [
          -0.01597837,
          -0.08272416,
          0.00080243,
          -0.02752875,
          0.09184664,
          0.00233609,
          0.07247606,
          0.034941,
          -0.08944335,
          0.08551756,
          0.04576032,
          0.0671684,
          0.04527578,
          -0.01447171,
          0.05338797,
          -0.03945424,
          0.01608464,
          0.0079706,
          0.01036613,
          -0.04639461,
          0.06199899,
          -0.07329158,
          -0.01887224,
          -0.05052582,
          0.04055982,
          -0.07645646,
          -0.01206716,
          0.0810812,
          -0.07818825,
          -0.03083531,
          0.07513001,
          0.01044176,
          -0.04523706,
          -0.05097436,
          -0.0364104,
          -0.00504114,
          -0.02628021,
          0.08269251,
          0.07856986,
          -0.00963417,
          0.03316787,
          -0.01741099,
          -0.06772772,
          -0.02538241,
          -0.00860079,
          0.00445482,
          0.0523679,
          -0.06525766,
          0.00903774,
          0.08180553,
          0.07127634,
          0.08830974,
          0.05305935,
          -0.01292202,
          0.07787766,
          0.07537286,
          -0.07664076,
          -0.02610992,
          -0.02996747,
          0.01367544,
          0.00470914,
          -0.09000087,
          -0.05195156,
          -0.01475695,
          -0.08145899,
          0.07742441,
          0.06123939,
          0.07425841,
          0.0247772,
          -0.00358936,
          0.00057427,
          -0.01898284,
          0.00855414,
          0.03072021,
          0.0206962,
          0.02751924,
          -0.00290555,
          -0.02308388,
          0.01384377,
          0.09409582,
          -0.0846273,
          -0.08821718,
          0.01966713,
          0.04778957,
          -0.07775394,
          0.07717823,
          -0.05254224,
          -0.07478486,
          -0.05602835,
          0.06194741,
          0.03967011,
          -0.03247289,
          0.02860133,
          -0.03689283,
          -0.04806067,
          0.05189499,
          -0.04505144,
          -0.01642047,
          -0.01053597,
          -0.05423197,
          0.06018485,
          -0.066226,
          0.08167389,
          0.00564187,
          0.01977996,
          0.03175377,
          0.08264419,
          0.09163718,
          -0.07329373,
          0.09469057,
          -0.08395669,
          0.05173115,
          0.03342257,
          0.03412753,
          0.03006635,
          -0.03753558,
          -0.01062696,
          0.07218625,
          0.04407811,
          0.02034703,
          -0.04030523,
          0.03497841,
          -0.0442401,
          0.0914862,
          -0.01479424,
          -0.08311112,
          -0.05154717,
          0.08076711,
          -0.03092567,
          0.034797,
          0.02042627,
          -0.01207147,
          0.05073172,
          -0.04182426,
          -0.00514314,
          0.0048871,
          -0.00483945,
          -0.00796332,
          -0.04348428,
          0.02781794,
          0.07104937,
          0.05165237,
          0.04962247,
          -0.00003913,
          0.01657268,
          0.05473797,
          0.06865546,
          0.09318444,
          0.04870104,
          -0.02771412,
          0.02985695,
          -0.07305808,
          0.04883351,
          0.03462915,
          -0.01935023,
          0.00917013,
          0.06486582,
          0.02778467,
          -0.041387,
          0.06579202,
          0.04213911,
          0.04935704,
          -0.08094167,
          -0.05512015,
          0.06600118,
          -0.08411588,
          0.0050316,
          -0.03237514,
          0.09521805,
          0.03185644
        ],
        [
          0.04663842,
          -0.09054319,
          0.02822697,
